%YAML:1.0
my_svm: !!opencv-ml-svm
   svm_type: C_SVC
   kernel: { type:LINEAR }
   C: 1.
   term_criteria: { epsilon:2.2204460492503131e-16, iterations:100 }
   var_all: 3780
   var_count: 3780
   class_count: 2
   class_labels: !!opencv-matrix
      rows: 1
      cols: 2
      dt: i
      data: [ -1, 1 ]
   sv_total: 1
   support_vectors:
      - [ -4.59494098e-04, -9.99123696e-03, -3.04322271e-03,
          4.19261679e-03, 0., -1.71248545e-03, 4.21810430e-04,
          -1.01045407e-02, -8.29026662e-03, -4.78880256e-02,
          -2.31526345e-02, -2.38969270e-02, -2.91186646e-02,
          -1.86342411e-02, -1.83612760e-02, -1.28351385e-02,
          -1.34026632e-02, -2.96919644e-02, -8.36754031e-03,
          -2.27817129e-02, -2.26550903e-02, -6.91679493e-02,
          -2.08556894e-02, -2.24563889e-02, -1.54588949e-02,
          -2.08568014e-03, 4.64071473e-03, 7.04696029e-03,
          -3.34872641e-02, -4.93055955e-02, -1.77160233e-01,
          -3.80100869e-02, -3.31133716e-02, -3.26533131e-02,
          -8.47115833e-03, 1.33143244e-02, 2.43922137e-02,
          -1.20360246e-02, -1.80262234e-02, -4.12344076e-02,
          -1.51742604e-02, -1.33674350e-02, -1.27539868e-02,
          9.46438930e-04, 2.15318408e-02, -1.28457434e-02,
          -3.04399021e-02, -3.86359207e-02, -6.57420903e-02,
          -1.80666689e-02, -2.36830935e-02, -2.43687611e-02,
          -8.37061927e-03, 1.54872555e-02, 2.05718982e-03,
          -3.29085588e-02, -4.55001816e-02, -9.27894935e-02,
          -2.27364227e-02, -2.63641607e-02, -2.89315209e-02,
          -8.83245468e-03, 2.55754460e-02, -3.83997373e-02,
          -7.46068731e-02, -6.76317737e-02, -1.32378638e-01,
          -7.58542940e-02, -7.73698017e-02, -5.40071540e-02,
          -1.94979124e-02, 5.79613587e-03, 3.63295078e-02,
          -3.00110672e-02, -3.41016166e-02, -3.73397954e-02,
          -2.84618419e-02, -3.31536308e-02, -2.48304680e-02,
          -2.38571153e-03, 6.00523762e-02, -1.90359689e-02,
          -4.43760417e-02, -5.19293286e-02, -5.27382419e-02,
          -3.60941514e-02, -4.28613089e-02, -3.39470990e-02,
          -9.89705510e-03, 3.63113768e-02, -2.12414898e-02,
          -5.82804754e-02, -5.94152771e-02, -6.43286556e-02,
          -5.24058752e-02, -5.99543191e-02, -4.47306111e-02,
          -1.22035583e-02, 3.90650183e-02, -7.78906271e-02,
          -8.95947516e-02, -8.16403851e-02, -8.75470191e-02,
          -9.86058041e-02, -8.37292075e-02, -5.56427501e-02,
          -2.77194995e-02, 1.28298998e-02, 9.79540031e-03,
          -4.49167117e-02, -4.56382595e-02, -2.15145908e-02,
          -5.30642271e-02, -4.87053208e-02, -2.97088306e-02,
          -8.80967453e-03, 6.23011664e-02, -3.68324062e-03,
          -6.01308122e-02, -8.49547833e-02, -2.53656656e-02,
          -5.56947999e-02, -5.64003177e-02, -3.25185955e-02,
          -1.86711233e-02, 6.08522110e-02, -2.13407073e-02,
          -7.31331110e-02, -9.42493081e-02, -3.31482776e-02,
          -7.53784776e-02, -7.00854212e-02, -3.77108492e-02,
          -2.58142930e-02, 5.31391799e-02, -4.56461869e-02,
          -8.13852102e-02, -1.11531056e-01, -6.28644302e-02,
          -9.68377590e-02, -9.81086046e-02, -4.95954454e-02,
          -2.87244692e-02, 4.15486172e-02, -1.48527753e-02,
          -5.71073852e-02, -8.06178972e-02, -2.66914181e-02,
          -6.64965808e-02, -7.12947324e-02, -3.68536003e-02,
          -2.42547058e-02, 5.10162264e-02, -1.51410857e-02,
          -5.95726706e-02, -8.04293305e-02, -2.52126716e-02,
          -6.69971630e-02, -7.15925023e-02, -3.74227576e-02,
          -2.46926192e-02, 5.26172929e-02, -2.75892429e-02,
          -6.47633076e-02, -9.09509584e-02, -3.87928523e-02,
          -7.73361251e-02, -8.40398818e-02, -4.44950536e-02,
          -2.62392182e-02, 4.73509915e-02, -2.46235058e-02,
          -6.69200495e-02, -9.28220302e-02, -4.16369848e-02,
          -7.85595179e-02, -8.66064504e-02, -4.92054224e-02,
          -2.80593410e-02, 4.70476225e-02, -3.34484950e-02,
          -5.94939515e-02, -7.66918734e-02, -3.20118591e-02,
          -6.84583262e-02, -7.56281763e-02, -4.44867276e-02,
          -2.77644154e-02, 3.65272388e-02, -2.85586100e-02,
          -5.95017076e-02, -7.60532692e-02, -2.67056320e-02,
          -6.84336647e-02, -7.58633539e-02, -4.25547101e-02,
          -2.60515697e-02, 4.03297022e-02, -2.61750892e-02,
          -6.11067414e-02, -7.75134042e-02, -2.88061518e-02,
          -6.94201663e-02, -7.77263567e-02, -4.60702330e-02,
          -2.73827612e-02, 4.02405895e-02, -1.89685132e-02,
          -6.14895038e-02, -7.69942477e-02, -2.01073550e-02,
          -6.92767575e-02, -7.77029544e-02, -4.60995212e-02,
          -2.60113329e-02, 4.36663814e-02, -3.90986428e-02,
          -5.89700751e-02, -7.23353550e-02, -1.68440621e-02,
          -6.57569915e-02, -7.50867799e-02, -4.37203385e-02,
          -2.78083812e-02, 2.84258649e-02, -3.41873541e-02,
          -5.91246225e-02, -7.21738636e-02, -1.41212549e-02,
          -6.56889901e-02, -7.51383230e-02, -4.47242633e-02,
          -2.66310256e-02, 3.17968018e-02, -2.85733063e-02,
          -5.94179519e-02, -7.17305988e-02, -6.31704694e-03,
          -6.55710697e-02, -7.51223639e-02, -4.47839797e-02,
          -2.55397037e-02, 3.43907289e-02, -2.22533345e-02,
          -5.74207045e-02, -6.87525943e-02, -2.84209382e-03,
          -6.55710697e-02, -7.47925565e-02, -4.41921018e-02,
          -2.43271980e-02, 3.75416353e-02, -3.72610204e-02,
          -5.57219200e-02, -6.64195567e-02, -7.07271229e-03,
          -6.28173575e-02, -7.18811452e-02, -4.30704914e-02,
          -2.50445772e-02, 2.47509126e-02, -3.08161490e-02,
          -5.61377034e-02, -6.80327639e-02, -9.86250211e-03,
          -6.46592528e-02, -7.25986585e-02, -4.41676006e-02,
          -2.49000527e-02, 3.02948672e-02, -2.87234429e-02,
          -5.76396622e-02, -6.82448000e-02, -9.49754566e-03,
          -6.59959540e-02, -7.39214420e-02, -4.42083590e-02,
          -2.38358285e-02, 3.24960798e-02, -2.65940242e-02,
          -5.75552024e-02, -6.98657036e-02, -9.08791181e-03,
          -6.66529536e-02, -7.70875365e-02, -4.42309417e-02,
          -2.27705091e-02, 3.45278792e-02, -2.46892069e-02,
          -5.35889268e-02, -6.60637841e-02, -1.13119483e-02,
          -6.19656444e-02, -6.97622076e-02, -4.09522317e-02,
          -2.09336970e-02, 3.02090161e-02, -2.56470293e-02,
          -5.76895550e-02, -6.85603023e-02, -1.27879027e-02,
          -6.63727373e-02, -7.51494020e-02, -4.54939492e-02,
          -2.20094342e-02, 3.18983272e-02, -2.38087513e-02,
          -5.76064140e-02, -6.99297339e-02, -1.23750139e-02,
          -6.69378042e-02, -7.77847543e-02, -4.54735011e-02,
          -2.10841801e-02, 3.35901082e-02, -3.26942429e-02,
          -6.47737980e-02, -7.78556094e-02, -1.65865347e-02,
          -7.09151924e-02, -8.17181692e-02, -4.87834513e-02,
          -2.30894405e-02, 3.47424150e-02, -9.53666680e-03,
          -5.63231111e-02, -6.74003586e-02, -6.98148506e-03,
          -6.21310659e-02, -7.15640113e-02, -4.30824421e-02,
          -1.66078545e-02, 4.19122800e-02, -1.68817267e-02,
          -6.15903735e-02, -7.09612444e-02, -9.50873177e-03,
          -7.00004026e-02, -7.80832991e-02, -4.57167886e-02,
          -2.02972591e-02, 3.87785658e-02, -2.37097200e-02,
          -6.71791360e-02, -7.72545934e-02, -1.27040464e-02,
          -7.31642917e-02, -8.11898410e-02, -4.82852235e-02,
          -2.18908563e-02, 4.00174484e-02, -3.55785452e-02,
          -7.84169808e-02, -8.87562037e-02, -1.45959714e-02,
          -7.90266469e-02, -8.87812003e-02, -5.30834757e-02,
          -2.63631158e-02, 3.44262868e-02, -4.65139374e-03,
          -6.40586093e-02, -7.19847605e-02, 2.57666135e-04,
          -6.86500296e-02, -7.63057247e-02, -4.35845219e-02,
          -1.96448937e-02, 4.67604473e-02, -1.07332552e-02,
          -6.64325580e-02, -7.66269118e-02, -5.47951087e-03,
          -7.33515173e-02, -8.19902644e-02, -4.65974621e-02,
          -2.02724542e-02, 4.39903066e-02, -1.93089526e-02,
          -7.45569021e-02, -8.52130502e-02, -6.63800770e-03,
          -7.77901486e-02, -8.78603309e-02, -5.03875762e-02,
          -2.37823930e-02, 3.98388021e-02, -3.57140489e-02,
          -7.87925571e-02, -8.64866599e-02, -6.82942616e-03,
          -8.07398558e-02, -8.94255713e-02, -5.52288555e-02,
          -2.52477210e-02, 3.01002655e-02, -1.49127971e-02,
          -6.58280700e-02, -7.48211369e-02, -5.44852053e-04,
          -7.15484917e-02, -8.02257657e-02, -4.90125306e-02,
          -1.94880813e-02, 3.83024067e-02, -1.38923712e-02,
          -6.62897006e-02, -7.53748789e-02, -8.92854645e-04,
          -7.19901025e-02, -8.10487792e-02, -5.06239347e-02,
          -2.00250000e-02, 3.82259376e-02, -2.71804780e-02,
          -6.96096271e-02, -7.64408335e-02, -8.18113505e-04,
          -7.43477270e-02, -8.23301300e-02, -5.46281189e-02,
          -2.12346669e-02, 3.03609744e-02, -2.84973606e-02,
          -7.06733465e-02, -7.85661936e-02, -5.11345643e-05,
          -7.61453286e-02, -8.41967538e-02, -5.74437156e-02,
          -2.18296777e-02, 2.87418403e-02, -2.57897601e-02,
          -6.53312728e-02, -7.27329999e-02, 9.29922215e-04,
          -7.06185773e-02, -7.86949992e-02, -5.49346134e-02,
          -2.16755252e-02, 2.70179734e-02, -2.26454306e-02,
          -6.54254407e-02, -7.24894181e-02, 5.39447600e-03,
          -7.05408826e-02, -7.86749125e-02, -5.49314283e-02,
          -2.10931469e-02, 2.86512207e-02, -2.38647331e-02,
          -6.63844571e-02, -7.43727908e-02, 6.21910160e-03,
          -7.21279010e-02, -8.03594664e-02, -5.74467964e-02,
          -2.16683690e-02, 2.72156950e-02, -2.26403661e-02,
          -6.54296950e-02, -7.41491020e-02, 8.55172239e-03,
          -7.22725242e-02, -8.09807926e-02, -5.73987663e-02,
          -2.21551284e-02, 2.79486664e-02, -2.94581447e-02,
          -6.40961826e-02, -7.17887804e-02, 9.30738263e-03,
          -6.99395090e-02, -7.88539499e-02, -5.64939342e-02,
          -2.33507752e-02, 2.18699854e-02, -2.62231994e-02,
          -6.32318929e-02, -7.05429986e-02, 1.11789359e-02,
          -6.99395090e-02, -7.86919594e-02, -5.62304705e-02,
          -2.27428991e-02, 2.36427318e-02, -2.52320636e-02,
          -6.23593628e-02, -7.03393221e-02, 1.33463116e-02,
          -7.00784400e-02, -7.92921036e-02, -5.62193766e-02,
          -2.32636370e-02, 2.42377724e-02, -2.25062277e-02,
          -6.19247630e-02, -6.98764399e-02, 1.50164906e-02,
          -7.01094270e-02, -7.89880306e-02, -5.56237027e-02,
          -2.24814154e-02, 2.60585342e-02, -2.69743595e-02,
          -6.07969314e-02, -6.74611926e-02, 1.22222435e-02,
          -6.79367930e-02, -7.62943923e-02, -5.40150590e-02,
          -2.22028513e-02, 2.19656359e-02, -2.55299434e-02,
          -6.07290305e-02, -6.82813004e-02, 1.27637712e-02,
          -6.82579651e-02, -7.78883025e-02, -5.40250838e-02,
          -2.16630977e-02, 2.31860522e-02, -2.31675208e-02,
          -6.11668117e-02, -6.96399286e-02, 1.22277839e-02,
          -7.04555959e-02, -7.91871399e-02, -5.50577380e-02,
          -2.18985304e-02, 2.56028064e-02, -2.91877296e-02,
          -6.34312406e-02, -7.29682893e-02, 1.12089235e-02,
          -7.18310326e-02, -7.96732232e-02, -5.70189133e-02,
          -2.39052232e-02, 2.54105311e-02, -2.02867612e-02,
          -5.77349439e-02, -6.74626157e-02, 1.30480537e-02,
          -6.56888485e-02, -7.35580772e-02, -5.16752675e-02,
          -2.05016471e-02, 2.74423305e-02, -2.35605966e-02,
          -6.06223457e-02, -7.09624141e-02, 1.15810409e-02,
          -6.75402880e-02, -7.53949806e-02, -5.31636178e-02,
          -2.14165319e-02, 2.83289328e-02, -2.82496959e-02,
          -6.26607835e-02, -7.39782676e-02, 1.06967892e-02,
          -6.87551126e-02, -7.58296475e-02, -5.49158081e-02,
          -2.31675636e-02, 2.84687504e-02, -3.68352756e-02,
          -6.66362569e-02, -7.50982314e-02, 1.03823841e-02,
          -7.07407892e-02, -7.83557072e-02, -5.81483506e-02,
          -2.57779025e-02, 2.47672759e-02, -1.86291058e-02,
          -5.95223531e-02, -6.82244375e-02, 1.47127416e-02,
          -6.33631498e-02, -7.00847283e-02, -5.15182167e-02,
          -2.11171936e-02, 3.34383659e-02, -2.29047313e-02,
          -6.40270412e-02, -7.29723051e-02, 1.42566971e-02,
          -6.59021586e-02, -7.33520389e-02, -5.35688326e-02,
          -2.30199080e-02, 3.13297138e-02, -2.98371874e-02,
          -6.74626008e-02, -7.39358887e-02, 1.40610039e-02,
          -6.76114038e-02, -7.55475089e-02, -5.64027205e-02,
          -2.51503810e-02, 2.84436196e-02, -3.77374105e-02,
          -7.12796226e-02, -7.54079819e-02, 1.41363004e-02,
          -6.85004443e-02, -7.70922378e-02, -5.87232113e-02,
          -2.83996165e-02, 2.50013974e-02, -1.94210727e-02,
          -6.40036240e-02, -6.91218451e-02, 1.98549945e-02,
          -6.17976487e-02, -6.98036626e-02, -5.24439067e-02,
          -2.39618067e-02, 3.19784209e-02, -2.71807015e-02,
          -6.58831820e-02, -6.97624832e-02, 2.01320499e-02,
          -6.31123930e-02, -7.05683902e-02, -5.48634231e-02,
          -2.47141421e-02, 2.75361929e-02, -3.35941650e-02,
          -6.90962523e-02, -7.10229054e-02, 2.03088894e-02,
          -6.38729334e-02, -7.19089881e-02, -5.68317622e-02,
          -2.74920985e-02, 2.47836523e-02, -3.25278677e-02,
          -6.91572577e-02, -7.15293810e-02, 1.90074090e-02,
          -6.53408468e-02, -7.41046071e-02, -5.79589158e-02,
          -2.76895873e-02, 2.47531608e-02, -2.90624406e-02,
          -6.42634779e-02, -6.57528862e-02, 2.10926402e-02,
          -6.07861020e-02, -6.82242289e-02, -5.48504926e-02,
          -2.50028800e-02, 2.38873586e-02, -2.93669812e-02,
          -6.47814199e-02, -6.68356717e-02, 2.17523482e-02,
          -6.17174804e-02, -6.92681000e-02, -5.63757680e-02,
          -2.53440086e-02, 2.33379342e-02, -2.81994957e-02,
          -6.48311600e-02, -6.72955737e-02, 2.06127837e-02,
          -6.30384460e-02, -7.12591633e-02, -5.73784225e-02,
          -2.55064219e-02, 2.33917478e-02, -2.60398556e-02,
          -6.49727806e-02, -6.80540279e-02, 1.85468905e-02,
          -6.46264255e-02, -7.24788159e-02, -5.88017181e-02,
          -2.74882559e-02, 2.49508191e-02, -2.73838788e-02,
          -6.26980141e-02, -6.59532100e-02, 1.73633471e-02,
          -6.22177795e-02, -7.00065494e-02, -5.74837811e-02,
          -2.71296408e-02, 2.14708690e-02, -2.64730379e-02,
          -6.20967187e-02, -6.58002645e-02, 1.90761629e-02,
          -6.22940361e-02, -7.02944398e-02, -5.73963225e-02,
          -2.72364337e-02, 2.20363960e-02, -2.44544167e-02,
          -6.22330271e-02, -6.65091649e-02, 1.71600468e-02,
          -6.37749732e-02, -7.14443624e-02, -5.87399043e-02,
          -2.90758722e-02, 2.35075764e-02, -2.30411347e-02,
          -6.23014458e-02, -6.75388277e-02, 1.64370853e-02,
          -6.46344200e-02, -7.29248673e-02, -6.18867986e-02,
          -3.01780514e-02, 2.49408726e-02, -2.64883228e-02,
          -6.02789447e-02, -6.52154684e-02, 1.53512405e-02,
          -6.24396466e-02, -7.11754635e-02, -6.02556542e-02,
          -3.03294659e-02, 2.07182206e-02, -2.46381015e-02,
          -6.00198545e-02, -6.49143681e-02, 1.65517870e-02,
          -6.24561198e-02, -7.09407404e-02, -5.98158725e-02,
          -2.98125949e-02, 2.19416190e-02, -2.33492982e-02,
          -6.00957498e-02, -6.58843294e-02, 1.58399828e-02,
          -6.32771477e-02, -7.23246485e-02, -6.27492443e-02,
          -3.08761485e-02, 2.32758168e-02, -2.14844439e-02,
          -5.92430159e-02, -6.55802861e-02, 1.65744293e-02,
          -6.40413985e-02, -7.33905062e-02, -6.30157813e-02,
          -3.08964718e-02, 2.53792219e-02, -2.40763072e-02,
          -5.78995571e-02, -6.39874041e-02, 1.46363722e-02,
          -6.26194254e-02, -7.15381801e-02, -6.18055314e-02,
          -3.08777634e-02, 2.22664736e-02, -2.61549111e-02,
          -5.92542738e-02, -6.59513026e-02, 1.41790574e-02,
          -6.34223968e-02, -7.18280673e-02, -6.29372224e-02,
          -3.19495574e-02, 2.27498561e-02, -2.33617295e-02,
          -5.93018755e-02, -6.59294575e-02, 1.41164390e-02,
          -6.40765876e-02, -7.20642582e-02, -6.29163459e-02,
          -3.20266783e-02, 2.50050798e-02, -2.04171278e-02,
          -5.96422628e-02, -6.63464814e-02, 1.36764329e-02,
          -6.50977418e-02, -7.35181794e-02, -6.56159222e-02,
          -3.34797315e-02, 2.65298821e-02, -2.01780181e-02,
          -5.76717928e-02, -6.44262433e-02, 1.38466693e-02,
          -6.19019121e-02, -6.94251508e-02, -6.29223436e-02,
          -3.23637575e-02, 2.58394685e-02, -2.44521555e-02,
          -5.99118434e-02, -6.50637671e-02, 1.37734283e-02,
          -6.30373880e-02, -7.09422082e-02, -6.48839772e-02,
          -3.37465070e-02, 2.40437314e-02, -2.19619535e-02,
          -6.02333620e-02, -6.54581636e-02, 1.34084914e-02,
          -6.39800131e-02, -7.23063946e-02, -6.73488602e-02,
          -3.50810401e-02, 2.53361203e-02, -2.27428544e-02,
          -6.14079461e-02, -6.61402345e-02, 1.27566485e-02,
          -6.53898790e-02, -7.32246414e-02, -6.93728477e-02,
          -3.78293805e-02, 2.59983819e-02, -1.79697648e-02,
          -5.82604446e-02, -6.16037436e-02, 1.51494304e-02,
          -6.12934008e-02, -6.88723028e-02, -6.56548813e-02,
          -3.49922627e-02, 2.67729610e-02, -2.25049481e-02,
          -6.03647418e-02, -6.25272542e-02, 1.52951432e-02,
          -6.18437119e-02, -6.98611066e-02, -6.70717731e-02,
          -3.70510817e-02, 2.47586258e-02, -2.32910924e-02,
          -6.14451319e-02, -6.31451085e-02, 1.47334421e-02,
          -6.31439015e-02, -7.07032159e-02, -6.89359531e-02,
          -3.95624377e-02, 2.52863690e-02, -2.50452925e-02,
          -6.27091900e-02, -6.47712797e-02, 1.52961314e-02,
          -6.36899546e-02, -7.10475072e-02, -7.02931359e-02,
          -4.19214703e-02, 2.47465037e-02, -2.22138092e-02,
          -5.97142316e-02, -6.10625520e-02, 1.71149969e-02,
          -5.95548823e-02, -6.67010769e-02, -6.64435178e-02,
          -3.96588854e-02, 2.44067628e-02, -2.14529373e-02,
          -5.97729757e-02, -6.14084154e-02, 1.62584092e-02,
          -6.04706332e-02, -6.81779683e-02, -6.72353730e-02,
          -3.99023145e-02, 2.43717507e-02, -2.31144167e-02,
          -6.09300993e-02, -6.29287958e-02, 1.68109871e-02,
          -6.09759279e-02, -6.84874877e-02, -6.84876591e-02,
          -4.20683101e-02, 2.38037109e-02, -2.32181735e-02,
          -6.11878894e-02, -6.35979176e-02, 1.70550719e-02,
          -6.20552860e-02, -6.92261010e-02, -6.92367628e-02,
          -4.33940738e-02, 2.40751002e-02, -2.15147864e-02,
          -5.82644306e-02, -6.08346537e-02, 1.61279328e-02,
          -5.97842485e-02, -6.70218170e-02, -6.64843172e-02,
          -4.13095430e-02, 2.25851778e-02, -2.00046189e-02,
          -5.83851486e-02, -6.13187589e-02, 1.47563294e-02,
          -6.08013570e-02, -6.78637251e-02, -6.75131306e-02,
          -4.26543728e-02, 2.36611031e-02, -2.01559309e-02,
          -5.86257577e-02, -6.19523264e-02, 1.49986558e-02,
          -6.18250370e-02, -6.85653910e-02, -6.82244077e-02,
          -4.39096056e-02, 2.38546375e-02, -2.09897030e-02,
          -5.91269471e-02, -6.29623234e-02, 1.44342352e-02,
          -6.33235201e-02, -6.90264627e-02, -6.89822286e-02,
          -4.49691340e-02, 2.39924192e-02, -1.92495417e-02,
          -5.65036871e-02, -6.03871979e-02, 1.27764102e-02,
          -6.12126775e-02, -6.65004849e-02, -6.65305555e-02,
          -4.40985300e-02, 2.31340304e-02, -1.83326099e-02,
          -5.65285310e-02, -6.10542372e-02, 1.25125870e-02,
          -6.17108680e-02, -6.74991310e-02, -6.87154457e-02,
          -4.48621064e-02, 2.40395516e-02, -1.91796180e-02,
          -5.69980592e-02, -6.20041862e-02, 1.19971661e-02,
          -6.31214678e-02, -6.79334626e-02, -6.94345757e-02,
          -4.58646044e-02, 2.41265558e-02, -1.93489064e-02,
          -5.73133640e-02, -6.28322586e-02, 1.23004075e-02,
          -6.51347414e-02, -6.94985837e-02, -7.11290091e-02,
          -4.66079041e-02, 2.41755415e-02, -1.97771844e-02,
          -5.52854165e-02, -6.08605035e-02, 1.09215733e-02,
          -6.30823448e-02, -6.79026768e-02, -7.04766214e-02,
          -4.59939390e-02, 2.20708046e-02, -1.83169320e-02,
          -5.45806661e-02, -6.06657602e-02, 1.15083596e-02,
          -6.36181533e-02, -6.86611459e-02, -7.07211122e-02,
          -4.60435040e-02, 2.36207936e-02, -1.85308233e-02,
          -5.48860356e-02, -6.14567734e-02, 1.17486399e-02,
          -6.55387044e-02, -7.01642558e-02, -7.23468587e-02,
          -4.67598625e-02, 2.36221068e-02, -1.70397181e-02,
          -5.48726879e-02, -6.24680184e-02, 1.15778418e-02,
          -6.59401491e-02, -7.17179775e-02, -7.26478696e-02,
          -4.66651358e-02, 2.43465882e-02, -1.83366779e-02,
          -5.40964752e-02, -6.11937270e-02, 9.87256970e-03,
          -6.50174171e-02, -7.04390854e-02, -7.12601393e-02,
          -4.61427681e-02, 2.23844647e-02, -1.71172284e-02,
          -5.43343760e-02, -6.14893287e-02, 9.62605421e-03,
          -6.57238811e-02, -7.14461952e-02, -7.29870275e-02,
          -4.71014790e-02, 2.30248272e-02, -1.64140351e-02,
          -5.42083681e-02, -6.14803135e-02, 9.28927399e-03,
          -6.61008358e-02, -7.13173896e-02, -7.29340538e-02,
          -4.71082442e-02, 2.36680489e-02, -1.63898412e-02,
          -5.45792505e-02, -6.19968846e-02, 7.92621542e-03,
          -6.82683811e-02, -7.20704570e-02, -7.33356476e-02,
          -4.71770912e-02, 2.37927474e-02, -1.33237289e-02,
          -5.30828051e-02, -6.02976605e-02, 7.41211232e-03,
          -6.67891353e-02, -7.06482679e-02, -7.24862516e-02,
          -4.62138951e-02, 2.44414490e-02, -1.42047498e-02,
          -5.38705438e-02, -6.07535914e-02, 6.94381585e-03,
          -6.78120553e-02, -7.12895691e-02, -7.39016980e-02,
          -4.81483862e-02, 2.45501269e-02, -1.41735133e-02,
          -5.42277806e-02, -6.12543821e-02, 5.62622212e-03,
          -6.99068680e-02, -7.20186457e-02, -7.42884651e-02,
          -4.82134968e-02, 2.46741585e-02, -1.64690427e-02,
          -5.60453311e-02, -6.24206737e-02, 3.62184783e-03,
          -7.27957487e-02, -7.33154342e-02, -7.49503821e-02,
          -4.96406406e-02, 2.41500940e-02, -1.05989967e-02,
          -5.35951704e-02, -5.96488826e-02, 4.91306931e-03,
          -7.01132938e-02, -7.00064674e-02, -7.20612705e-02,
          -4.79146615e-02, 2.68526208e-02, -1.22130830e-02,
          -5.44986576e-02, -6.08245470e-02, 5.36509091e-03,
          -7.05158263e-02, -7.02529699e-02, -7.30636418e-02,
          -4.96327952e-02, 2.60828659e-02, -1.43582374e-02,
          -5.62134720e-02, -6.19220212e-02, 3.51994927e-03,
          -7.32148066e-02, -7.14739189e-02, -7.36913309e-02,
          -5.09827174e-02, 2.55830418e-02, -1.67872086e-02,
          -5.72525710e-02, -6.33220151e-02, 2.85111181e-03,
          -7.36380145e-02, -7.18189701e-02, -7.46024922e-02,
          -5.19907735e-02, 2.47828383e-02, -1.20335910e-02,
          -5.47404699e-02, -6.10300079e-02, 4.77570435e-03,
          -7.02465549e-02, -6.81878701e-02, -7.15234578e-02,
          -4.99345772e-02, 2.60930210e-02, -1.23159885e-02,
          -5.49085140e-02, -6.15191124e-02, 4.99592861e-03,
          -7.10345358e-02, -6.87193125e-02, -7.20826015e-02,
          -5.09237684e-02, 2.60425173e-02, -1.45422202e-02,
          -5.58854863e-02, -6.28370643e-02, 4.38174326e-03,
          -7.14364126e-02, -6.90422133e-02, -7.29345828e-02,
          -5.18585891e-02, 2.53118742e-02, -1.66446213e-02,
          -5.64992726e-02, -6.33416250e-02, 4.13599238e-03,
          -7.18479231e-02, -6.93839192e-02, -7.38259852e-02,
          -5.31209260e-02, 2.41944697e-02, -1.20055806e-02,
          -5.37033379e-02, -6.07831068e-02, 5.20142727e-03,
          -6.94063306e-02, -6.66126087e-02, -7.09206611e-02,
          -5.09133823e-02, 2.55240761e-02, -1.27397915e-02,
          -5.40567674e-02, -6.15087487e-02, 4.81494982e-03,
          -7.05310330e-02, -6.69464543e-02, -7.14877099e-02,
          -5.17144352e-02, 2.55128127e-02, -1.46726482e-02,
          -5.46301082e-02, -6.19827434e-02, 4.60698036e-03,
          -7.09106997e-02, -6.72630146e-02, -7.23165944e-02,
          -5.28928451e-02, 2.44795904e-02, -1.71050802e-02,
          -5.55872098e-02, -6.22763634e-02, 4.54644067e-03,
          -7.17037022e-02, -6.77917972e-02, -7.25737885e-02,
          -5.34170531e-02, 2.34104544e-02, -1.29548898e-02,
          -5.30469306e-02, -5.99312037e-02, 5.02692163e-03,
          -6.95083812e-02, -6.47682771e-02, -6.94369227e-02,
          -5.09810857e-02, 2.47830506e-02, -1.31466119e-02,
          -5.32827638e-02, -6.05555773e-02, 5.13853179e-03,
          -7.10209459e-02, -6.59304783e-02, -7.06786290e-02,
          -5.15239276e-02, 2.47489866e-02, -1.54133290e-02,
          -5.41924424e-02, -6.08342811e-02, 5.10057947e-03,
          -7.17594102e-02, -6.64239898e-02, -7.09212795e-02,
          -5.20140864e-02, 2.37607192e-02, -1.86924804e-02,
          -5.65337799e-02, -6.26844168e-02, 3.29459063e-03,
          -7.37880915e-02, -6.72862679e-02, -7.18222484e-02,
          -5.21154664e-02, 2.25863252e-02, -1.39768310e-02,
          -5.40727787e-02, -6.04187809e-02, 4.68758773e-03,
          -7.20378682e-02, -6.52458593e-02, -6.94085583e-02,
          -4.99392338e-02, 2.42784675e-02, -1.29222516e-02,
          -5.40704392e-02, -6.12839051e-02, 4.51633940e-03,
          -7.23664314e-02, -6.64902627e-02, -6.97243586e-02,
          -4.99329083e-02, 2.47586351e-02, -1.59946159e-02,
          -5.62641956e-02, -6.30196407e-02, 2.82294443e-03,
          -7.42863715e-02, -6.73085228e-02, -7.05752447e-02,
          -5.00336587e-02, 2.36688480e-02, -1.85095817e-02,
          -5.68885244e-02, -6.34577274e-02, 1.82602520e-03,
          -7.46116638e-02, -6.76559731e-02, -7.03717545e-02,
          -4.99699824e-02, 2.29875613e-02, -1.56403109e-02,
          -5.53720333e-02, -6.18515462e-02, 1.08347309e-03,
          -7.30507448e-02, -6.57793283e-02, -6.85056821e-02,
          -4.84737270e-02, 2.39835158e-02, -1.55441053e-02,
          -5.56350984e-02, -6.22297265e-02, 1.18780852e-04,
          -7.46921524e-02, -6.63489327e-02, -6.87954128e-02,
          -4.85130586e-02, 2.41052303e-02, -1.42740449e-02,
          -5.56292348e-02, -6.21797480e-02, -1.39853772e-04,
          -7.49321207e-02, -6.64116144e-02, -6.87693879e-02,
          -4.82728146e-02, 2.52244286e-02, -1.45956045e-02,
          -5.65751940e-02, -6.31481409e-02, -1.70121551e-03,
          -7.58431628e-02, -6.67750239e-02, -6.92093149e-02,
          -4.89442497e-02, 2.54479796e-02, -1.07920906e-02,
          -5.49085289e-02, -6.16172478e-02, -2.33958708e-03,
          -7.53010362e-02, -6.52538314e-02, -6.72098920e-02,
          -4.72761653e-02, 2.70006731e-02, -1.24417003e-02,
          -5.62247522e-02, -6.24447353e-02, -3.66924820e-03,
          -7.73388147e-02, -6.61847815e-02, -6.76977187e-02,
          -4.83152904e-02, 2.65613254e-02, -1.27447806e-02,
          -5.71255609e-02, -6.33589849e-02, -5.13441022e-03,
          -7.82144070e-02, -6.65349290e-02, -6.81203380e-02,
          -4.89587337e-02, 2.67773233e-02, -1.49361193e-02,
          -5.77435531e-02, -6.62895069e-02, -7.46396417e-03,
          -7.86888152e-02, -6.70358911e-02, -6.86546713e-02,
          -4.96955104e-02, 2.50168964e-02, -8.76646861e-03,
          -5.57452552e-02, -6.36536777e-02, -5.83575480e-03,
          -7.71001279e-02, -6.46258071e-02, -6.55168667e-02,
          -4.78087440e-02, 2.83189602e-02, -1.04770130e-02,
          -5.65301925e-02, -6.47413880e-02, -6.23409403e-03,
          -7.74207711e-02, -6.48784935e-02, -6.61383346e-02,
          -4.85273600e-02, 2.77308673e-02, -1.25008551e-02,
          -5.71081303e-02, -6.73603043e-02, -8.32055137e-03,
          -7.78753683e-02, -6.53469190e-02, -6.66419566e-02,
          -4.92225178e-02, 2.61283293e-02, -1.44350575e-02,
          -5.73553853e-02, -6.79038689e-02, -8.25542491e-03,
          -7.84738436e-02, -6.55544624e-02, -6.67131320e-02,
          -4.99847829e-02, 2.46630907e-02, -9.46039241e-03,
          -5.52602783e-02, -6.58827648e-02, -7.12534506e-03,
          -7.56051317e-02, -6.29174113e-02, -6.43367320e-02,
          -4.76069525e-02, 2.67409030e-02, -1.09006390e-02,
          -5.57019785e-02, -6.62660822e-02, -7.21303746e-03,
          -7.58711845e-02, -6.31500408e-02, -6.49799407e-02,
          -4.84952405e-02, 2.59520784e-02, -1.27387159e-02,
          -5.59328198e-02, -6.67802393e-02, -7.14161247e-03,
          -7.64387622e-02, -6.33451790e-02, -6.50479943e-02,
          -4.92065698e-02, 2.45642960e-02, -1.43045252e-02,
          -5.60744926e-02, -6.70470521e-02, -7.22573325e-03,
          -7.65358508e-02, -6.38793185e-02, -6.59951568e-02,
          -4.98787463e-02, 2.37550549e-02, -1.03225671e-02,
          -5.40110730e-02, -6.47318438e-02, -6.44185161e-03,
          -7.39022940e-02, -6.14303797e-02, -6.38572052e-02,
          -4.78077158e-02, 2.48830803e-02, -1.20416321e-02,
          -5.46690598e-02, -6.49322793e-02, -6.43890351e-03,
          -7.44716823e-02, -6.17933460e-02, -6.40218183e-02,
          -4.81925160e-02, 2.41058357e-02, -1.35524189e-02,
          -5.48033416e-02, -6.51805475e-02, -6.51219068e-03,
          -7.45652467e-02, -6.23045303e-02, -6.49204329e-02,
          -4.88234721e-02, 2.33297907e-02, -1.42529337e-02,
          -5.55224493e-02, -6.55126721e-02, -6.39963197e-03,
          -7.47830644e-02, -6.27311096e-02, -6.52829260e-02,
          -4.92692441e-02, 2.26157065e-02, -1.09124323e-02,
          -5.36513627e-02, -6.29161298e-02, -5.20073716e-03,
          -7.22802281e-02, -6.02157563e-02, -6.24432899e-02,
          -4.68043871e-02, 2.36439817e-02, -1.31942360e-02,
          -5.53189740e-02, -6.42396882e-02, -6.54537277e-03,
          -7.38726929e-02, -6.09041862e-02, -6.31848127e-02,
          -4.69151884e-02, 2.28512883e-02, -1.39257712e-02,
          -5.59992082e-02, -6.45504072e-02, -6.42231805e-03,
          -7.40782395e-02, -6.13104552e-02, -6.35290891e-02,
          -4.73319814e-02, 2.21609119e-02, -1.45848924e-02,
          -5.68710528e-02, -6.53462186e-02, -7.20951194e-03,
          -7.49525726e-02, -6.27490729e-02, -6.44060522e-02,
          -4.78720516e-02, 2.21314505e-02, -1.14872688e-02,
          -5.58271818e-02, -6.38104305e-02, -6.69298414e-03,
          -7.32760057e-02, -6.06020652e-02, -6.21562861e-02,
          -4.54076603e-02, 2.34129969e-02, -1.31723089e-02,
          -5.62961660e-02, -6.41632155e-02, -7.52047263e-03,
          -7.35490769e-02, -6.08594827e-02, -6.20963015e-02,
          -4.54303175e-02, 2.30046138e-02, -1.37881301e-02,
          -5.71192354e-02, -6.49308711e-02, -8.25443212e-03,
          -7.43889958e-02, -6.21935390e-02, -6.29109293e-02,
          -4.59352583e-02, 2.29817517e-02, -1.24107059e-02,
          -5.76034859e-02, -6.53109029e-02, -8.60419683e-03,
          -7.46294409e-02, -6.24283962e-02, -6.30828962e-02,
          -4.63447161e-02, 2.31561661e-02, -1.30524170e-02,
          -5.66989630e-02, -6.41924813e-02, -9.83506069e-03,
          -7.35377744e-02, -6.14914671e-02, -6.22421056e-02,
          -4.53487821e-02, 2.22567767e-02, -1.33144800e-02,
          -5.73884174e-02, -6.48659393e-02, -1.08935442e-02,
          -7.42166713e-02, -6.17562011e-02, -6.25740588e-02,
          -4.58488800e-02, 2.24026181e-02, -1.05170030e-02,
          -5.67260161e-02, -6.44548759e-02, -1.03232553e-02,
          -7.46431574e-02, -6.16258457e-02, -6.23362996e-02,
          -4.54102755e-02, 2.49188505e-02, -8.49224348e-03,
          -5.76234236e-02, -6.53502494e-02, -1.17746023e-02,
          -7.58221373e-02, -6.15100935e-02, -6.23076893e-02,
          -4.54913154e-02, 2.63092984e-02, -8.77846312e-03,
          -5.67525029e-02, -6.42593428e-02, -1.23179564e-02,
          -7.48711228e-02, -6.04758412e-02, -6.13237284e-02,
          -4.50645946e-02, 2.58712936e-02, -1.05078882e-02,
          -5.72181270e-02, -6.63012415e-02, -1.39330849e-02,
          -7.52443597e-02, -6.08461499e-02, -6.17242977e-02,
          -4.55993116e-02, 2.45407224e-02, -8.70624091e-03,
          -5.80715127e-02, -6.71310201e-02, -1.52839171e-02,
          -7.63900727e-02, -6.07289150e-02, -6.16971143e-02,
          -4.56754453e-02, 2.57539544e-02, -8.34014546e-03,
          -5.89211546e-02, -6.80378973e-02, -1.65980682e-02,
          -7.73537904e-02, -6.13007434e-02, -6.19761795e-02,
          -4.58512604e-02, 2.63167303e-02, -6.77931774e-03,
          -5.69679625e-02, -6.71071187e-02, -1.59027651e-02,
          -7.53004476e-02, -5.96643798e-02, -6.03072159e-02,
          -4.47132029e-02, 2.63215005e-02, -8.53068288e-03,
          -5.71445040e-02, -6.75355047e-02, -1.58166215e-02,
          -7.57770091e-02, -5.98286428e-02, -6.03737868e-02,
          -4.52916436e-02, 2.50598211e-02, -8.28014500e-03,
          -5.79418279e-02, -6.84048012e-02, -1.70591176e-02,
          -7.66959712e-02, -6.03778251e-02, -6.06430992e-02,
          -4.54619862e-02, 2.55094189e-02, -1.12094143e-02,
          -5.82095757e-02, -6.86943382e-02, -1.72174238e-02,
          -7.71626756e-02, -6.08413443e-02, -6.09222129e-02,
          -4.57250141e-02, 2.55638175e-02, -8.49394500e-03,
          -5.57765849e-02, -6.62518144e-02, -1.49374995e-02,
          -7.48823881e-02, -5.87860495e-02, -5.87126799e-02,
          -4.42090370e-02, 2.59988438e-02, -9.95465089e-03,
          -5.58814779e-02, -6.64470345e-02, -1.49253346e-02,
          -7.49629810e-02, -5.92188835e-02, -5.94658405e-02,
          -4.47727963e-02, 2.52531096e-02, -1.28156114e-02,
          -5.61319627e-02, -6.67214617e-02, -1.50739197e-02,
          -7.54068866e-02, -5.96607067e-02, -5.97252287e-02,
          -4.50259484e-02, 2.52239835e-02, -1.62929669e-02,
          -5.66158928e-02, -6.71826079e-02, -1.48320599e-02,
          -7.54125342e-02, -5.98639026e-02, -5.99078424e-02,
          -4.54331003e-02, 2.53698416e-02, -1.30156800e-02,
          -5.42346127e-02, -6.46853969e-02, -1.27970232e-02,
          -7.28328004e-02, -5.79641573e-02, -5.82549535e-02,
          -4.38715965e-02, 2.62748711e-02, -1.40770022e-02,
          -5.47621921e-02, -6.49159253e-02, -1.26424553e-02,
          -7.29913861e-02, -5.82840778e-02, -5.85451312e-02,
          -4.41977493e-02, 2.55735610e-02, -1.74426734e-02,
          -5.52246347e-02, -6.53619468e-02, -1.24021033e-02,
          -7.29960501e-02, -5.84805831e-02, -5.87205067e-02,
          -4.45885062e-02, 2.56574340e-02, -1.84097420e-02,
          -5.53387664e-02, -6.54798672e-02, -1.26081510e-02,
          -7.35468268e-02, -5.90604022e-02, -5.90037480e-02,
          -4.45993692e-02, 2.59255320e-02, -1.60449576e-02,
          -5.38828149e-02, -6.36170879e-02, -1.12905186e-02,
          -7.13175014e-02, -5.73483258e-02, -5.72489612e-02,
          -4.30487208e-02, 2.60551441e-02, -1.68157667e-02,
          -5.45725860e-02, -6.42849654e-02, -1.19254906e-02,
          -7.21058026e-02, -5.84145710e-02, -5.78924194e-02,
          -4.34607863e-02, 2.59748418e-02, -1.77879669e-02,
          -5.46848625e-02, -6.43996671e-02, -1.21176168e-02,
          -7.26329461e-02, -5.89705221e-02, -5.81651293e-02,
          -4.34751809e-02, 2.61985697e-02, -1.76183302e-02,
          -5.49074300e-02, -6.54629692e-02, -1.27415285e-02,
          -7.35474899e-02, -5.97628169e-02, -5.82545139e-02,
          -4.35395390e-02, 2.67426353e-02, -1.68482997e-02,
          -5.41409776e-02, -6.45846725e-02, -1.27505735e-02,
          -7.22830743e-02, -5.92298657e-02, -5.73528334e-02,
          -4.25264612e-02, 2.65515484e-02, -1.63129196e-02,
          -5.44982664e-02, -6.48866743e-02, -1.30371088e-02,
          -7.24896118e-02, -5.94245940e-02, -5.74903600e-02,
          -4.28330936e-02, 2.66547203e-02, -1.61968116e-02,
          -5.47114834e-02, -6.59023523e-02, -1.36291897e-02,
          -7.33660087e-02, -6.01754785e-02, -5.75701185e-02,
          -4.28940244e-02, 2.71441042e-02, -1.54862422e-02,
          -5.47756888e-02, -6.59162551e-02, -1.33418161e-02,
          -7.33995438e-02, -6.02109134e-02, -5.75995408e-02,
          -4.27491367e-02, 2.75784861e-02, -1.67865437e-02,
          -5.37955984e-02, -6.48747683e-02, -1.35115245e-02,
          -7.28863329e-02, -5.95716536e-02, -5.69448359e-02,
          -4.20460813e-02, 2.68579684e-02, -1.57239977e-02,
          -5.44762239e-02, -6.55047148e-02, -1.44932391e-02,
          -7.37967342e-02, -5.94393350e-02, -5.69179319e-02,
          -4.21021804e-02, 2.74952594e-02, -1.48860849e-02,
          -5.43549731e-02, -6.55432791e-02, -1.48722557e-02,
          -7.36957490e-02, -5.88022508e-02, -5.66291139e-02,
          -4.18891013e-02, 2.80699637e-02, -1.49985012e-02,
          -5.45292832e-02, -6.58610761e-02, -1.65729597e-02,
          -7.42176026e-02, -5.95172271e-02, -5.66418692e-02,
          -4.19453047e-02, 2.85756961e-02, -1.37394005e-02,
          -5.41241430e-02, -6.50659278e-02, -1.69193149e-02,
          -7.37470388e-02, -5.84396273e-02, -5.56839481e-02,
          -4.13105786e-02, 2.87971012e-02, -1.39258476e-02,
          -5.47913574e-02, -6.58410564e-02, -1.79673992e-02,
          -7.45483413e-02, -5.89201078e-02, -5.59146106e-02,
          -4.14563306e-02, 2.88326573e-02, -1.40617834e-02,
          -5.49624637e-02, -6.61501661e-02, -1.96241178e-02,
          -7.50436038e-02, -5.95944449e-02, -5.59257343e-02,
          -4.15127277e-02, 2.93043181e-02, -1.45430118e-02,
          -5.52100316e-02, -6.70332834e-02, -2.15848330e-02,
          -7.63602108e-02, -5.98630346e-02, -5.59042580e-02,
          -4.14015278e-02, 2.94578057e-02, -1.20525490e-02,
          -5.40805534e-02, -6.57082573e-02, -2.07362231e-02,
          -7.50665218e-02, -5.87934293e-02, -5.46385571e-02,
          -4.03366312e-02, 3.03919557e-02, -1.46991890e-02,
          -5.42833880e-02, -6.59349859e-02, -2.08450332e-02,
          -7.54311904e-02, -5.91633394e-02, -5.48441298e-02,
          -4.05610502e-02, 3.00839189e-02, -1.51803931e-02,
          -5.45242876e-02, -6.67866692e-02, -2.27355547e-02,
          -7.67024830e-02, -5.94203174e-02, -5.48212901e-02,
          -4.04504500e-02, 3.02231219e-02, -1.57221518e-02,
          -5.50009124e-02, -6.71046451e-02, -2.30287239e-02,
          -7.71871358e-02, -6.01776913e-02, -5.52147590e-02,
          -4.08145562e-02, 3.02603263e-02, -1.42612075e-02,
          -5.31384200e-02, -6.50480241e-02, -2.07877345e-02,
          -7.52824098e-02, -5.87280057e-02, -5.36943413e-02,
          -3.96721326e-02, 3.15243714e-02, -1.73007902e-02,
          -5.35358824e-02, -6.54366761e-02, -2.05702484e-02,
          -7.52849430e-02, -5.89000173e-02, -5.38471602e-02,
          -4.00163829e-02, 3.13788019e-02, -1.78310201e-02,
          -5.39961495e-02, -6.57429099e-02, -2.08406821e-02,
          -7.57518634e-02, -5.96306808e-02, -5.42196222e-02,
          -4.03548479e-02, 3.14129218e-02, -1.94240510e-02,
          -5.43605126e-02, -6.60548955e-02, -2.09475271e-02,
          -7.61714801e-02, -5.98931536e-02, -5.45498505e-02,
          -4.04741243e-02, 3.09773758e-02, -1.83814205e-02,
          -5.29007725e-02, -6.44355193e-02, -1.89975481e-02,
          -7.40657672e-02, -5.82228415e-02, -5.29513285e-02,
          -3.93520072e-02, 3.22492197e-02, -1.94310565e-02,
          -5.30051999e-02, -6.45342469e-02, -1.91564560e-02,
          -7.45337307e-02, -5.87199815e-02, -5.31961285e-02,
          -3.93844508e-02, 3.23063768e-02, -2.09830403e-02,
          -5.33602014e-02, -6.48381487e-02, -1.92542542e-02,
          -7.49380514e-02, -5.89745902e-02, -5.35117388e-02,
          -3.95000614e-02, 3.18855941e-02, -2.18160395e-02,
          -5.34664541e-02, -6.48791566e-02, -1.90236531e-02,
          -7.50611499e-02, -5.93576618e-02, -5.37748002e-02,
          -3.97661254e-02, 3.16701680e-02, -2.04997975e-02,
          -5.22237495e-02, -6.34857342e-02, -1.83622502e-02,
          -7.37021193e-02, -5.82963489e-02, -5.25361113e-02,
          -3.84548530e-02, 3.21914330e-02, -2.06211675e-02,
          -5.24096750e-02, -6.43635765e-02, -1.88795552e-02,
          -7.44545981e-02, -5.89278340e-02, -5.25948443e-02,
          -3.85149457e-02, 3.24517600e-02, -2.14395560e-02,
          -5.25134131e-02, -6.44034892e-02, -1.86530836e-02,
          -7.45739043e-02, -5.92989884e-02, -5.28511852e-02,
          -3.87727916e-02, 3.22348215e-02, -2.28005592e-02,
          -5.26388325e-02, -6.48956299e-02, -1.86460372e-02,
          -7.52319768e-02, -5.98269440e-02, -5.28944843e-02,
          -3.87573093e-02, 3.12161408e-02, -2.14549974e-02,
          -5.17426804e-02, -6.44566342e-02, -1.85852833e-02,
          -7.43117258e-02, -5.90409115e-02, -5.16135059e-02,
          -3.75026688e-02, 3.15728411e-02, -2.10964642e-02,
          -5.17989546e-02, -6.44678101e-02, -1.83349214e-02,
          -7.43402615e-02, -5.90724982e-02, -5.16420864e-02,
          -3.74095216e-02, 3.18092965e-02, -2.24265587e-02,
          -5.19214496e-02, -6.49497211e-02, -1.83241460e-02,
          -7.49835894e-02, -5.95865324e-02, -5.16845025e-02,
          -3.73943783e-02, 3.08174416e-02, -2.30551679e-02,
          -5.18328026e-02, -6.49324507e-02, -1.80412661e-02,
          -7.49713182e-02, -5.96035197e-02, -5.16271107e-02,
          -3.73738520e-02, 3.02668270e-02, -2.15180218e-02,
          -5.06839678e-02, -6.36962354e-02, -1.78034231e-02,
          -7.34209865e-02, -5.79712242e-02, -5.02700098e-02,
          -3.60585973e-02, 3.05454321e-02, -2.16993913e-02,
          -5.08317240e-02, -6.39580339e-02, -1.92110017e-02,
          -7.38121718e-02, -5.85013665e-02, -5.02758920e-02,
          -3.61113325e-02, 3.08935679e-02, -2.18378287e-02,
          -5.08441515e-02, -6.39949292e-02, -1.97651684e-02,
          -7.42413551e-02, -5.84800541e-02, -5.02039976e-02,
          -3.60652395e-02, 2.95788106e-02, -2.36121248e-02,
          -5.09145781e-02, -6.42370507e-02, -2.03531943e-02,
          -7.47416317e-02, -5.83808236e-02, -5.07023185e-02,
          -3.62756215e-02, 2.79750060e-02, -1.97651796e-02,
          -4.92321849e-02, -6.24718741e-02, -1.97501853e-02,
          -7.29312971e-02, -5.73849268e-02, -4.90778945e-02,
          -3.46506052e-02, 2.99238358e-02, -2.02372111e-02,
          -4.94339876e-02, -6.31910115e-02, -2.13296264e-02,
          -7.40071163e-02, -5.75928688e-02, -4.90493998e-02,
          -3.45461778e-02, 2.99885329e-02, -2.18656585e-02,
          -4.94997166e-02, -6.34197965e-02, -2.19061021e-02,
          -7.45030269e-02, -5.75031750e-02, -4.95342724e-02,
          -3.47481035e-02, 2.84996908e-02, -2.50166468e-02,
          -4.97234762e-02, -6.37708679e-02, -2.19890922e-02,
          -7.50867650e-02, -5.77043183e-02, -4.95947301e-02,
          -3.51643339e-02, 2.64386181e-02, -1.97479241e-02,
          -4.79706861e-02, -6.23226687e-02, -2.11371910e-02,
          -7.37436786e-02, -5.62084466e-02, -4.77987677e-02,
          -3.32257412e-02, 2.91790199e-02, -2.02621482e-02,
          -4.83728945e-02, -6.25895038e-02, -2.13591754e-02,
          -7.41383582e-02, -5.68138771e-02, -4.81116250e-02,
          -3.35172750e-02, 2.91507915e-02, -2.32458487e-02,
          -4.85917479e-02, -6.29324019e-02, -2.14317236e-02,
          -7.47041404e-02, -5.70074692e-02, -4.81667817e-02,
          -3.39138880e-02, 2.71973219e-02, -2.62401961e-02,
          -4.90473583e-02, -6.33027405e-02, -2.18391009e-02,
          -7.48876482e-02, -5.70906587e-02, -4.81658615e-02,
          -3.40878442e-02, 2.51121446e-02, -2.07435153e-02,
          -4.75706682e-02, -6.14403635e-02, -1.96335893e-02,
          -7.29255378e-02, -5.59290126e-02, -4.67306674e-02,
          -3.25982645e-02, 2.80141532e-02, -2.21198406e-02,
          -4.78876159e-02, -6.17003590e-02, -1.97110418e-02,
          -7.32751265e-02, -5.61415441e-02, -4.70023751e-02,
          -3.26978453e-02, 2.76022926e-02, -2.49663666e-02,
          -4.83298190e-02, -6.20576441e-02, -2.00904142e-02,
          -7.34532252e-02, -5.62235415e-02, -4.70001288e-02,
          -3.28650996e-02, 2.56182197e-02, -2.73514614e-02,
          -4.86624390e-02, -6.23965524e-02, -2.08071042e-02,
          -7.44575709e-02, -5.63587472e-02, -4.70205732e-02,
          -3.29462700e-02, 2.40647458e-02, -2.35489607e-02,
          -4.73427661e-02, -6.07292317e-02, -1.89138781e-02,
          -7.25440904e-02, -5.47942668e-02, -4.55967039e-02,
          -3.14359777e-02, 2.60930806e-02, -2.43129805e-02,
          -4.74317856e-02, -6.07615151e-02, -1.86958686e-02,
          -7.26484507e-02, -5.51222712e-02, -4.58156504e-02,
          -3.16664316e-02, 2.58602612e-02, -2.66117044e-02,
          -4.77576740e-02, -6.10934682e-02, -1.93882938e-02,
          -7.36267045e-02, -5.52545413e-02, -4.58349548e-02,
          -3.17430161e-02, 2.43644379e-02, -2.71077268e-02,
          -4.77916151e-02, -6.11501634e-02, -1.91015024e-02,
          -7.37327635e-02, -5.55573255e-02, -4.64047678e-02,
          -3.20653580e-02, 2.39134412e-02, -2.50322092e-02,
          -4.66532521e-02, -5.96889295e-02, -1.77694261e-02,
          -7.19540790e-02, -5.43724373e-02, -4.51595336e-02,
          -3.09210401e-02, 2.47343220e-02, -2.62633804e-02,
          -4.67604101e-02, -6.01170547e-02, -1.77394785e-02,
          -7.25280866e-02, -5.48176467e-02, -4.51964252e-02,
          -3.09061799e-02, 2.38233842e-02, -2.67567448e-02,
          -4.67933640e-02, -6.01718798e-02, -1.74575895e-02,
          -7.26322755e-02, -5.51108830e-02, -4.57460582e-02,
          -3.12181357e-02, 2.33819727e-02, -2.78792996e-02,
          -4.68077213e-02, -6.01907596e-02, -1.77567285e-02,
          -7.28249475e-02, -5.52496053e-02, -4.58328016e-02,
          -3.13167349e-02, 2.26013325e-02, -2.62436308e-02,
          -4.58416007e-02, -5.93265928e-02, -1.68925971e-02,
          -7.17254728e-02, -5.42616509e-02, -4.44966629e-02,
          -3.00231278e-02, 2.29051784e-02, -2.68196799e-02,
          -4.57631759e-02, -5.93104549e-02, -1.66394953e-02,
          -7.17145652e-02, -5.42753115e-02, -4.44508307e-02,
          -3.00040618e-02, 2.23970730e-02, -2.78981347e-02,
          -4.57757898e-02, -5.93280829e-02, -1.69335790e-02,
          -7.19038248e-02, -5.44116274e-02, -4.45361920e-02,
          -3.00999042e-02, 2.16475278e-02, -2.88337320e-02,
          -4.55181450e-02, -5.92356436e-02, -1.66706443e-02,
          -7.20474347e-02, -5.47885634e-02, -4.44729291e-02,
          -3.00537646e-02, 2.08642669e-02, -2.59898175e-02,
          -4.42949757e-02, -5.78555465e-02, -1.60038657e-02,
          -7.06682056e-02, -5.35394773e-02, -4.31958176e-02,
          -2.88569238e-02, 2.10330691e-02, -2.72527374e-02,
          -4.43398543e-02, -5.80401123e-02, -1.64936371e-02,
          -7.11069927e-02, -5.34600839e-02, -4.35892828e-02,
          -2.90274899e-02, 1.98494662e-02, -2.80411933e-02,
          -4.44212630e-02, -5.81560954e-02, -1.64969042e-02,
          -7.13700727e-02, -5.35903350e-02, -4.35857922e-02,
          -2.93562915e-02, 1.96754523e-02, -2.90239919e-02,
          -4.50634472e-02, -5.86859286e-02, -1.72506068e-02,
          -7.16435909e-02, -5.38020954e-02, -4.36342880e-02,
          -2.95185670e-02, 1.93183348e-02, -2.52251867e-02,
          -4.35107946e-02, -5.70607260e-02, -1.57715343e-02,
          -6.98826760e-02, -5.21573424e-02, -4.26195487e-02,
          -2.83929296e-02, 2.05262210e-02, -2.76723206e-02,
          -4.37038764e-02, -5.73621057e-02, -1.58053804e-02,
          -7.03643709e-02, -5.23196757e-02, -4.26574163e-02,
          -2.87157167e-02, 1.89244244e-02, -2.86013372e-02,
          -4.43244316e-02, -5.78758046e-02, -1.65313687e-02,
          -7.06332177e-02, -5.25277629e-02, -4.27049510e-02,
          -2.88716443e-02, 1.85955688e-02, -2.87842788e-02,
          -4.49819490e-02, -5.82516976e-02, -1.69390999e-02,
          -7.12181628e-02, -5.27474582e-02, -4.29817848e-02,
          -2.91998349e-02, 1.85507797e-02, -2.60058474e-02,
          -4.35849763e-02, -5.67356013e-02, -1.49210040e-02,
          -6.95683882e-02, -5.14134690e-02, -4.15851735e-02,
          -2.81409696e-02, 1.95674039e-02, -2.83235256e-02,
          -4.39784974e-02, -5.70530184e-02, -1.52435452e-02,
          -6.97253644e-02, -5.14866076e-02, -4.15818989e-02,
          -2.82804836e-02, 1.79526862e-02, -2.84924135e-02,
          -4.46121991e-02, -5.74119501e-02, -1.56318340e-02,
          -7.02924207e-02, -5.16977161e-02, -4.18479592e-02,
          -2.85953693e-02, 1.79132354e-02, -2.87462659e-02,
          -4.53179367e-02, -5.80489859e-02, -1.59057230e-02,
          -7.04586580e-02, -5.18423915e-02, -4.19954062e-02,
          -2.87831370e-02, 1.77286100e-02, -2.61746626e-02,
          -4.42687422e-02, -5.66658080e-02, -1.43453320e-02,
          -6.86933994e-02, -5.05408905e-02, -4.07029353e-02,
          -2.77057439e-02, 1.86423007e-02, -2.80657262e-02,
          -4.45559509e-02, -5.69568016e-02, -1.49390269e-02,
          -6.95456266e-02, -5.06551936e-02, -4.07185145e-02,
          -2.77669113e-02, 1.74180362e-02, -2.83057764e-02,
          -4.52364534e-02, -5.75723015e-02, -1.51985073e-02,
          -6.97052404e-02, -5.07944673e-02, -4.08573709e-02,
          -2.79446021e-02, 1.72435027e-02, -2.84500998e-02,
          -4.53971922e-02, -5.76808341e-02, -1.69125721e-02,
          -7.14057162e-02, -5.15062846e-02, -4.12399620e-02,
          -2.82380208e-02, 1.70462336e-02, -2.66284607e-02,
          -4.44952659e-02, -5.65426648e-02, -1.61532909e-02,
          -7.03941882e-02, -5.02551571e-02, -4.00415026e-02,
          -2.72274595e-02, 1.75948404e-02, -2.70370934e-02,
          -4.45247702e-02, -5.65868616e-02, -1.58880595e-02,
          -7.04800561e-02, -5.05130962e-02, -4.05289233e-02,
          -2.74896976e-02, 1.72436964e-02, -2.71768365e-02,
          -4.46822643e-02, -5.66928759e-02, -1.75476074e-02,
          -7.21394122e-02, -5.12107648e-02, -4.09047268e-02,
          -2.77778115e-02, 1.70521084e-02, -2.72602253e-02,
          -4.48006727e-02, -5.68258315e-02, -1.75799262e-02,
          -7.22414702e-02, -5.13519943e-02, -4.10929434e-02,
          -2.78126486e-02, 1.70095507e-02, -2.60253027e-02,
          -4.40814607e-02, -5.59425168e-02, -1.68381110e-02,
          -7.09936991e-02, -5.06198816e-02, -4.06448394e-02,
          -2.73285341e-02, 1.73253585e-02, -2.69540846e-02,
          -4.40950729e-02, -5.59577830e-02, -1.70902219e-02,
          -7.11587742e-02, -5.07369041e-02, -4.07178588e-02,
          -2.74099633e-02, 1.66838784e-02, -2.70409752e-02,
          -4.42121960e-02, -5.60876913e-02, -1.71205904e-02,
          -7.12586641e-02, -5.08740693e-02, -4.09005024e-02,
          -2.74446607e-02, 1.66396834e-02, -2.76607256e-02,
          -4.43550311e-02, -5.61741702e-02, -1.72712114e-02,
          -7.15072006e-02, -5.09686582e-02, -4.09745686e-02,
          -2.75182724e-02, 1.64813865e-02, -2.65843533e-02,
          -4.36487794e-02, -5.52782528e-02, -1.70231182e-02,
          -7.03351125e-02, -5.00240885e-02, -4.00450714e-02,
          -2.68665124e-02, 1.67834572e-02, -2.73402110e-02,
          -4.34127785e-02, -5.51925786e-02, -1.67802293e-02,
          -7.04541281e-02, -5.03400788e-02, -3.99897322e-02,
          -2.68280767e-02, 1.61457695e-02, -2.79312804e-02,
          -4.35532443e-02, -5.52765802e-02, -1.69272851e-02,
          -7.06974939e-02, -5.04316278e-02, -4.00601737e-02,
          -2.68984102e-02, 1.59961637e-02, -2.88119502e-02,
          -4.35496420e-02, -5.52812293e-02, -1.68761965e-02,
          -7.10298494e-02, -5.04661761e-02, -3.97780873e-02,
          -2.67292280e-02, 1.53218377e-02, -2.70223990e-02,
          -4.26712148e-02, -5.41998968e-02, -1.58542842e-02,
          -6.96217567e-02, -4.93655913e-02, -3.87917571e-02,
          -2.63132025e-02, 1.62283592e-02, -2.78379060e-02,
          -4.32220660e-02, -5.46574853e-02, -1.64878555e-02,
          -6.98600113e-02, -4.95476946e-02, -3.88323143e-02,
          -2.64459420e-02, 1.59416161e-02, -2.89793387e-02,
          -4.32227403e-02, -5.46789989e-02, -1.66641679e-02,
          -6.99435994e-02, -4.95449901e-02, -3.88521217e-02,
          -2.65250821e-02, 1.54187195e-02, -3.01472116e-02,
          -4.38038930e-02, -5.52706234e-02, -1.74728911e-02,
          -7.04551190e-02, -5.02813607e-02, -3.91758047e-02,
          -2.72264592e-02, 1.49843395e-02, -2.76128277e-02,
          -4.31358665e-02, -5.42548150e-02, -1.64098199e-02,
          -6.88913167e-02, -4.91786860e-02, -3.81639414e-02,
          -2.65600216e-02, 1.62701346e-02, -2.77833771e-02,
          -4.36941497e-02, -5.45617975e-02, -1.67248435e-02,
          -6.93868920e-02, -4.93635125e-02, -3.83962393e-02,
          -2.68423036e-02, 1.62163712e-02, -2.89284699e-02,
          -4.42613922e-02, -5.51361032e-02, -1.75028555e-02,
          -6.98817968e-02, -5.00756018e-02, -3.87089886e-02,
          -2.75197718e-02, 1.57899670e-02, -2.95988098e-02,
          -4.45717908e-02, -5.56797870e-02, -1.78631563e-02,
          -7.04990774e-02, -5.01998439e-02, -3.89205329e-02,
          -2.77032424e-02, 1.56135280e-02, -2.75795273e-02,
          -4.41695303e-02, -5.48008345e-02, -1.69826876e-02,
          -6.95734695e-02, -4.94007431e-02, -3.83070037e-02,
          -2.73441393e-02, 1.65605806e-02, -2.78285928e-02,
          -4.47761603e-02, -5.53513356e-02, -1.72064584e-02,
          -6.97139651e-02, -4.95283976e-02, -3.84346657e-02,
          -2.75060590e-02, 1.63872875e-02, -2.84825750e-02,
          -4.50807922e-02, -5.58847860e-02, -1.75582469e-02,
          -7.03177303e-02, -4.96495813e-02, -3.86403874e-02,
          -2.76829544e-02, 1.62167381e-02, -2.91747265e-02,
          -4.53859903e-02, -5.62168993e-02, -1.80549864e-02,
          -7.12412521e-02, -5.01505733e-02, -3.87492590e-02,
          -2.79665757e-02, 1.61169525e-02, -2.69745570e-02,
          -4.49866802e-02, -5.55464067e-02, -1.69872195e-02,
          -6.99092448e-02, -4.92454767e-02, -3.80222499e-02,
          -2.74674464e-02, 1.70791019e-02, -2.71200854e-02,
          -4.51288298e-02, -5.56424484e-02, -1.84302870e-02,
          -7.13964328e-02, -4.98750620e-02, -3.83671559e-02,
          -2.77319644e-02, 1.69021059e-02, -2.77948827e-02,
          -4.54258695e-02, -5.59654497e-02, -1.89072993e-02,
          -7.22898394e-02, -5.03620505e-02, -3.84727195e-02,
          -2.80077159e-02, 1.68040730e-02, -2.75917388e-02,
          -4.56005633e-02, -5.62569089e-02, -2.01069564e-02,
          -7.36874267e-02, -5.09926490e-02, -3.87194604e-02,
          -2.80596409e-02, 1.69589948e-02, -2.58525554e-02,
          -4.49481308e-02, -5.53804822e-02, -2.07206290e-02,
          -7.37753287e-02, -5.06390221e-02, -3.82953919e-02,
          -2.77138203e-02, 1.75360125e-02, -2.59649195e-02,
          -4.50536124e-02, -5.54954894e-02, -2.07353905e-02,
          -7.38621801e-02, -5.07573672e-02, -3.84529494e-02,
          -2.77544763e-02, 1.74698383e-02, -2.57708784e-02,
          -4.52254191e-02, -5.57816438e-02, -2.19080187e-02,
          -7.52297714e-02, -5.13773784e-02, -3.86956856e-02,
          -2.78063361e-02, 1.76193863e-02, -2.56136917e-02,
          -4.53897342e-02, -5.59310615e-02, -2.19922289e-02,
          -7.56688192e-02, -5.14930524e-02, -3.87789682e-02,
          -2.78942920e-02, 1.78434011e-02, -2.51909010e-02,
          -4.50161323e-02, -5.54131381e-02, -2.18686387e-02,
          -7.47924224e-02, -5.09135425e-02, -3.83840315e-02,
          -2.75672209e-02, 1.78277455e-02, -2.57516075e-02,
          -4.51365076e-02, -5.54862842e-02, -2.19921879e-02,
          -7.50103146e-02, -5.09909242e-02, -3.84390913e-02,
          -2.76347734e-02, 1.76534392e-02, -2.56034937e-02,
          -4.52986658e-02, -5.56332283e-02, -2.20740084e-02,
          -7.54411593e-02, -5.11048883e-02, -3.85218225e-02,
          -2.77218111e-02, 1.78679749e-02, -2.61456184e-02,
          -4.54345942e-02, -5.59323356e-02, -2.21454203e-02,
          -7.56778345e-02, -5.12871630e-02, -3.85475606e-02,
          -2.78085973e-02, 1.78273320e-02, -2.52445247e-02,
          -4.49333489e-02, -5.51965199e-02, -2.18210053e-02,
          -7.46157765e-02, -5.03959619e-02, -3.77914160e-02,
          -2.72563938e-02, 1.81893148e-02, -2.60330439e-02,
          -4.49311882e-02, -5.52006774e-02, -2.17603687e-02,
          -7.48946592e-02, -5.04179522e-02, -3.75364609e-02,
          -2.71205809e-02, 1.75814927e-02, -2.65569184e-02,
          -4.50657271e-02, -5.54927289e-02, -2.18290891e-02,
          -7.51288980e-02, -5.05984537e-02, -3.75614651e-02,
          -2.72051077e-02, 1.75449606e-02, -2.81575006e-02,
          -4.52221408e-02, -5.54824471e-02, -2.16704309e-02,
          -7.52701387e-02, -5.05834632e-02, -3.75647284e-02,
          -2.72820108e-02, 1.70768742e-02, -2.65123583e-02,
          -4.43706810e-02, -5.44843301e-02, -2.09566094e-02,
          -7.39247128e-02, -4.95784059e-02, -3.67637500e-02,
          -2.66164728e-02, 1.78517103e-02, -2.75618918e-02,
          -4.48849462e-02, -5.50014302e-02, -2.16429457e-02,
          -7.43674561e-02, -5.02174571e-02, -3.70467752e-02,
          -2.72257794e-02, 1.74629036e-02, -2.72537526e-02,
          -4.48763333e-02, -5.50615117e-02, -2.17878651e-02,
          -7.44991675e-02, -5.02307452e-02, -3.70405391e-02,
          -2.72088870e-02, 1.76243857e-02, -2.70674806e-02,
          -4.49105278e-02, -5.52250817e-02, -2.28707064e-02,
          -7.52240419e-02, -5.02568036e-02, -3.70681696e-02,
          -2.72010695e-02, 1.78194400e-02, -2.59390622e-02,
          -4.46000323e-02, -5.47199287e-02, -2.24768091e-02,
          -7.43362904e-02, -4.99795079e-02, -3.66395339e-02,
          -2.72461064e-02, 1.84323601e-02, -2.65518185e-02,
          -4.48764823e-02, -5.52003421e-02, -2.27857474e-02,
          -7.48728663e-02, -5.00905514e-02, -3.68267559e-02,
          -2.74054352e-02, 1.82627011e-02, -2.63720825e-02,
          -4.49096970e-02, -5.53597398e-02, -2.38388292e-02,
          -7.55789950e-02, -5.01158684e-02, -3.68536301e-02,
          -2.73970161e-02, 1.84511691e-02, -2.64755376e-02,
          -4.49381396e-02, -5.54812290e-02, -2.44415551e-02,
          -7.65735954e-02, -5.04714288e-02, -3.73861752e-02,
          -2.74504479e-02, 1.84072852e-02, -2.52482668e-02,
          -4.44000922e-02, -5.49592674e-02, -2.36297660e-02,
          -7.58238435e-02, -4.97399680e-02, -3.69075686e-02,
          -2.70988084e-02, 1.90687012e-02, -2.58812103e-02,
          -4.46683392e-02, -5.52512817e-02, -2.40554716e-02,
          -7.66303986e-02, -5.01829311e-02, -3.70023102e-02,
          -2.73465570e-02, 1.89579073e-02, -2.59834845e-02,
          -4.46962975e-02, -5.53703047e-02, -2.46468447e-02,
          -7.76034817e-02, -5.05331755e-02, -3.75282802e-02,
          -2.73997858e-02, 1.89149827e-02, -2.60508265e-02,
          -4.48363014e-02, -5.58542013e-02, -2.51871608e-02,
          -7.93002471e-02, -5.10722846e-02, -3.81103568e-02,
          -2.75860354e-02, 1.89343654e-02, -2.45022345e-02,
          -4.41579409e-02, -5.49916029e-02, -2.41497643e-02,
          -7.85574913e-02, -5.05397357e-02, -3.74582000e-02,
          -2.72686034e-02, 1.98112912e-02, -2.43432932e-02,
          -4.43160273e-02, -5.52523397e-02, -2.52072457e-02,
          -7.97982141e-02, -5.11053130e-02, -3.76790501e-02,
          -2.73227040e-02, 1.99409500e-02, -2.44140830e-02,
          -4.44538780e-02, -5.57265766e-02, -2.57280264e-02,
          -8.14369097e-02, -5.16267419e-02, -3.82430404e-02,
          -2.75043529e-02, 1.99567992e-02, -2.42036562e-02,
          -4.45623212e-02, -5.60444817e-02, -2.74448339e-02,
          -8.24349448e-02, -5.18753827e-02, -3.84025164e-02,
          -2.75007989e-02, 2.01022644e-02, -2.29340009e-02,
          -4.40632999e-02, -5.54555729e-02, -2.77156811e-02,
          -8.24097916e-02, -5.16661815e-02, -3.80727984e-02,
          -2.71634627e-02, 2.05473900e-02, -2.28145160e-02,
          -4.42095436e-02, -5.55852987e-02, -2.77825166e-02,
          -8.27981681e-02, -5.17710261e-02, -3.81453149e-02,
          -2.72429157e-02, 2.07234826e-02, -2.26118695e-02,
          -4.43165489e-02, -5.58990873e-02, -2.94701178e-02,
          -8.37781206e-02, -5.20157516e-02, -3.83022055e-02,
          -2.72392742e-02, 2.08630245e-02, -2.21725143e-02,
          -4.42948863e-02, -5.59587553e-02, -2.94914041e-02,
          -8.44082609e-02, -5.22670969e-02, -3.83667275e-02,
          -2.72537582e-02, 2.11074110e-02, -2.20198222e-02,
          -4.41018008e-02, -5.55762164e-02, -2.95189694e-02,
          -8.39371458e-02, -5.18436581e-02, -3.80729400e-02,
          -2.71071959e-02, 2.09964700e-02, -2.25178786e-02,
          -4.42246236e-02, -5.58435582e-02, -2.95736250e-02,
          -8.41511488e-02, -5.20091765e-02, -3.80956419e-02,
          -2.71839350e-02, 2.09454708e-02, -2.20921524e-02,
          -4.42034714e-02, -5.59023283e-02, -2.95944568e-02,
          -8.47756341e-02, -5.22573963e-02, -3.81598882e-02,
          -2.71982960e-02, 2.11818628e-02, -2.20804047e-02,
          -4.43189703e-02, -5.65592088e-02, -3.01095266e-02,
          -8.50391611e-02, -5.24302870e-02, -3.82604264e-02,
          -2.72494052e-02, 2.12794021e-02, -2.12528054e-02,
          -4.39192541e-02, -5.61436154e-02, -2.98047531e-02,
          -8.41078758e-02, -5.18529005e-02, -3.76982354e-02,
          -2.68192999e-02, 2.16743983e-02, -2.27279086e-02,
          -4.40613106e-02, -5.61339967e-02, -2.96529122e-02,
          -8.42326209e-02, -5.18381745e-02, -3.76994759e-02,
          -2.68898793e-02, 2.12279987e-02, -2.27195006e-02,
          -4.41754200e-02, -5.67834005e-02, -3.01584247e-02,
          -8.44903812e-02, -5.20070307e-02, -3.77979875e-02,
          -2.69401930e-02, 2.13218164e-02, -2.30757948e-02,
          -4.41554263e-02, -5.69421686e-02, -3.02566662e-02,
          -8.46506283e-02, -5.19795828e-02, -3.77983414e-02,
          -2.70187408e-02, 2.09147520e-02, -2.17378717e-02,
          -4.36462983e-02, -5.63460216e-02, -2.99481656e-02,
          -8.37408602e-02, -5.13806678e-02, -3.73309143e-02,
          -2.66371779e-02, 2.14285012e-02, -2.15973929e-02,
          -4.36770506e-02, -5.64913452e-02, -3.08908485e-02,
          -8.43752176e-02, -5.14035597e-02, -3.73551808e-02,
          -2.66282670e-02, 2.15800591e-02, -2.23848540e-02,
          -4.37556617e-02, -5.65735660e-02, -3.07789687e-02,
          -8.44931379e-02, -5.14641926e-02, -3.74051072e-02,
          -2.68315244e-02, 2.10598037e-02, -2.30388884e-02,
          -4.39787358e-02, -5.71753196e-02, -3.13285999e-02,
          -8.49976242e-02, -5.17032780e-02, -3.74297351e-02,
          -2.71012615e-02, 2.08781268e-02, -2.11201757e-02,
          -4.33247872e-02, -5.64460717e-02, -3.12368777e-02,
          -8.42995569e-02, -5.09665161e-02, -3.68997566e-02,
          -2.66207494e-02, 2.18249559e-02, -2.12345738e-02,
          -4.33499739e-02, -5.65558560e-02, -3.17869037e-02,
          -8.51903930e-02, -5.12895286e-02, -3.73891443e-02,
          -2.66709197e-02, 2.17704810e-02, -2.18721032e-02,
          -4.35667671e-02, -5.71441092e-02, -3.23246978e-02,
          -8.56852457e-02, -5.15219197e-02, -3.74132581e-02,
          -2.69352440e-02, 2.15953458e-02, -2.23213900e-02,
          -4.36847508e-02, -5.74405901e-02, -3.28650028e-02,
          -8.62463042e-02, -5.16555198e-02, -3.74675766e-02,
          -2.71212850e-02, 2.14074180e-02, -2.06370130e-02,
          -4.29058522e-02, -5.65580726e-02, -3.21073085e-02,
          -8.56778920e-02, -5.11139594e-02, -3.72964963e-02,
          -2.66471040e-02, 2.21855640e-02, -2.07296684e-02,
          -4.30350378e-02, -5.69990054e-02, -3.25751230e-02,
          -8.71566907e-02, -5.15848286e-02, -3.78083698e-02,
          -2.68098619e-02, 2.21818946e-02, -2.11650003e-02,
          -4.31505106e-02, -5.72905727e-02, -3.31080370e-02,
          -8.77098069e-02, -5.17152660e-02, -3.78609188e-02,
          -2.69900151e-02, 2.20017172e-02, -2.14022845e-02,
          -4.34068926e-02, -5.79013601e-02, -3.39248255e-02,
          -8.87026265e-02, -5.22986203e-02, -3.79702635e-02,
          -2.70754583e-02, 2.20237970e-02, -1.92745421e-02,
          -4.25752997e-02, -5.71355335e-02, -3.26711088e-02,
          -8.84007066e-02, -5.17294668e-02, -3.76888700e-02,
          -2.66305413e-02, 2.30944268e-02, -1.90982297e-02,
          -4.26762775e-02, -5.74303679e-02, -3.42202187e-02,
          -8.92949849e-02, -5.19551486e-02, -3.78345698e-02,
          -2.66259424e-02, 2.32176222e-02, -1.93255208e-02,
          -4.29263748e-02, -5.80218881e-02, -3.50086540e-02,
          -9.02559012e-02, -5.25160618e-02, -3.79396304e-02,
          -2.67083012e-02, 2.32425164e-02, -1.97948869e-02,
          -4.31332290e-02, -5.82860410e-02, -3.65564488e-02,
          -9.12573561e-02, -5.29054329e-02, -3.81890759e-02,
          -2.68684905e-02, 2.30213050e-02, -1.77399572e-02,
          -4.24683802e-02, -5.76217100e-02, -3.69544700e-02,
          -9.06716064e-02, -5.22629544e-02, -3.76767293e-02,
          -2.62859706e-02, 2.39690598e-02, -1.73621047e-02,
          -4.24454547e-02, -5.76745905e-02, -3.69692706e-02,
          -9.12509710e-02, -5.24914190e-02, -3.77300568e-02,
          -2.62971912e-02, 2.41805911e-02, -1.78229883e-02,
          -4.26485762e-02, -5.79341464e-02, -3.84947062e-02,
          -9.22385082e-02, -5.28743826e-02, -3.79750170e-02,
          -2.64541898e-02, 2.39630900e-02, -1.84966791e-02,
          -4.26234864e-02, -5.80685996e-02, -3.87158059e-02,
          -9.26814154e-02, -5.29622883e-02, -3.80285680e-02,
          -2.66383532e-02, 2.35709734e-02, -1.70384869e-02,
          -4.20957431e-02, -5.74502423e-02, -3.81910540e-02,
          -9.21370387e-02, -5.25547080e-02, -3.76103297e-02,
          -2.62226220e-02, 2.41454951e-02, -1.70465112e-02,
          -4.22001258e-02, -5.80575205e-02, -3.86556052e-02,
          -9.23751593e-02, -5.27120903e-02, -3.77016105e-02,
          -2.62691919e-02, 2.42258254e-02, -1.77131835e-02,
          -4.21758294e-02, -5.81906028e-02, -3.88743207e-02,
          -9.28125903e-02, -5.27989753e-02, -3.77545245e-02,
          -2.64509190e-02, 2.38375664e-02, -1.81023367e-02,
          -4.22082879e-02, -5.85564375e-02, -3.92245464e-02,
          -9.32843983e-02, -5.31161502e-02, -3.78631726e-02,
          -2.64818221e-02, 2.35031527e-02, -1.68413632e-02,
          -4.17907424e-02, -5.84542006e-02, -3.90474610e-02,
          -9.23500285e-02, -5.26082143e-02, -3.74442413e-02,
          -2.60801297e-02, 2.40858048e-02, -1.71881784e-02,
          -4.17722762e-02, -5.85995540e-02, -3.91364917e-02,
          -9.24963653e-02, -5.25858440e-02, -3.74481454e-02,
          -2.61554625e-02, 2.37038806e-02, -1.75732113e-02,
          -4.18039747e-02, -5.89611493e-02, -3.94817516e-02,
          -9.29610804e-02, -5.28990589e-02, -3.75551209e-02,
          -2.61858292e-02, 2.33728793e-02, -1.78068187e-02,
          -4.19019535e-02, -5.89718334e-02, -4.01021913e-02,
          -9.30624008e-02, -5.28893396e-02, -3.75367850e-02,
          -2.61672828e-02, 2.31808033e-02, -1.67997330e-02,
          -4.13812101e-02, -5.82586266e-02, -3.91319320e-02,
          -9.18969736e-02, -5.22581451e-02, -3.70754264e-02,
          -2.58499179e-02, 2.35192031e-02, -1.73614137e-02,
          -4.15725037e-02, -5.87919019e-02, -3.96216474e-02,
          -9.23492685e-02, -5.24617322e-02, -3.70977260e-02,
          -2.60900185e-02, 2.33715847e-02, -1.81465559e-02,
          -4.16069441e-02, -5.88336661e-02, -3.94727327e-02,
          -9.24201310e-02, -5.25242724e-02, -3.71343680e-02,
          -2.63129529e-02, 2.29444746e-02, -1.83967426e-02,
          -4.17404957e-02, -5.91530427e-02, -3.99112552e-02,
          -9.31828991e-02, -5.34264445e-02, -3.73671465e-02,
          -2.67545916e-02, 2.28588451e-02, -1.69069096e-02,
          -4.12455238e-02, -5.87454364e-02, -3.92267890e-02,
          -9.21290293e-02, -5.27804457e-02, -3.67753133e-02,
          -2.63938326e-02, 2.37037297e-02, -1.72895622e-02,
          -4.13492471e-02, -5.90114258e-02, -3.97183932e-02,
          -9.26395878e-02, -5.28971143e-02, -3.68209444e-02,
          -2.65506022e-02, 2.35492475e-02, -1.75362565e-02,
          -4.14798595e-02, -5.93227930e-02, -4.01444696e-02,
          -9.33868885e-02, -5.37771210e-02, -3.70489545e-02,
          -2.69869603e-02, 2.34647226e-02, -1.77075360e-02,
          -4.16127518e-02, -5.93727529e-02, -4.02425081e-02,
          -9.40612182e-02, -5.40060885e-02, -3.72149087e-02,
          -2.71557234e-02, 2.32618656e-02, -1.63924694e-02,
          -4.10690531e-02, -5.87655641e-02, -3.96843404e-02,
          -9.31620970e-02, -5.32976761e-02, -3.66554633e-02,
          -2.67499704e-02, 2.39146408e-02, -1.66016035e-02,
          -4.13013622e-02, -5.93045466e-02, -4.03926484e-02,
          -9.40305889e-02, -5.38004711e-02, -3.67498845e-02,
          -2.68223155e-02, 2.39394270e-02, -1.67719331e-02,
          -4.14320529e-02, -5.93533628e-02, -4.04897928e-02,
          -9.46967825e-02, -5.40261790e-02, -3.69135402e-02,
          -2.69889031e-02, 2.37394534e-02, -1.71170514e-02,
          -4.13441360e-02, -5.95523678e-02, -4.10158969e-02,
          -9.51606557e-02, -5.44373840e-02, -3.70430164e-02,
          -2.71588862e-02, 2.35475935e-02, -1.48463938e-02,
          -4.07489240e-02, -5.90246208e-02, -4.02745344e-02,
          -9.43984091e-02, -5.39421141e-02, -3.63913067e-02,
          -2.65398920e-02, 2.48707999e-02, -1.52667584e-02,
          -4.09365594e-02, -5.92627786e-02, -4.16792892e-02,
          -9.53122675e-02, -5.42940609e-02, -3.66137698e-02,
          -2.66819373e-02, 2.46715713e-02, -1.56061323e-02,
          -4.08492833e-02, -5.94581403e-02, -4.21923772e-02,
          -9.57667008e-02, -5.46967760e-02, -3.67403850e-02,
          -2.68482864e-02, 2.44834069e-02, -1.68209746e-02,
          -4.09726389e-02, -5.96623495e-02, -4.27561179e-02,
          -9.68939066e-02, -5.50587587e-02, -3.69798765e-02,
          -2.70206518e-02, 2.38587335e-02, -1.39611969e-02,
          -4.02475484e-02, -5.87788150e-02, -4.24809717e-02,
          -9.60033014e-02, -5.43115921e-02, -3.63503695e-02,
          -2.63178125e-02, 2.54168082e-02, -1.45593314e-02,
          -4.02254723e-02, -5.89024462e-02, -4.26812209e-02,
          -9.64089110e-02, -5.43927029e-02, -3.63984555e-02,
          -2.64825169e-02, 2.50722617e-02, -1.57463457e-02,
          -4.03459631e-02, -5.91022968e-02, -4.32348587e-02,
          -9.75149125e-02, -5.47461435e-02, -3.66313346e-02,
          -2.66498365e-02, 2.44622789e-02, -1.64458454e-02,
          -4.05145176e-02, -5.92954271e-02, -4.32761796e-02,
          -9.81988013e-02, -5.50038777e-02, -3.68327089e-02,
          -2.67359540e-02, 2.41687465e-02, -1.46583561e-02,
          -3.98194417e-02, -5.85519932e-02, -4.23896350e-02,
          -9.71601456e-02, -5.42518497e-02, -3.62486392e-02,
          -2.62439772e-02, 2.50350535e-02, -1.49864592e-02,
          -3.98448966e-02, -5.88858537e-02, -4.27098908e-02,
          -9.75895673e-02, -5.45390844e-02, -3.63437235e-02,
          -2.62681618e-02, 2.47459579e-02, -1.56747103e-02,
          -4.00110073e-02, -5.90766817e-02, -4.27491926e-02,
          -9.82647985e-02, -5.47936819e-02, -3.65423784e-02,
          -2.63529532e-02, 2.44571809e-02, -1.61102116e-02,
          -4.01352756e-02, -5.91523945e-02, -4.27607261e-02,
          -9.87615734e-02, -5.55466712e-02, -3.67103480e-02,
          -2.63922084e-02, 2.42514573e-02, -1.48014985e-02,
          -3.96330282e-02, -5.87795563e-02, -6.44263700e-02,
          -9.80395824e-02, -5.51809184e-02, -3.63329910e-02,
          -2.59390399e-02, 2.47476399e-02, -1.49844801e-02,
          -3.97180580e-02, -5.87898754e-02, -6.50478303e-02,
          -9.81313661e-02, -5.51711544e-02, -3.63142155e-02,
          -2.59196367e-02, 2.45934688e-02, -1.54137341e-02,
          -3.98407318e-02, -5.88646568e-02, -6.51151836e-02,
          -9.86227468e-02, -5.59161939e-02, -3.64805199e-02,
          -2.59584356e-02, 2.43911929e-02, 1.52502907e-02,
          -4.00480293e-02, -5.88963926e-02, -6.54191226e-02,
          -9.89613831e-02, -5.59424199e-02, -3.65373939e-02,
          -2.60334294e-02, 5.53896278e-02, 1.10741006e-03,
          -3.94262969e-02, -5.80807962e-02, -6.41588941e-02,
          -9.76647884e-02, -5.51995188e-02, -3.59800570e-02,
          -2.56084837e-02, 4.04574983e-02, 8.87181784e-04,
          -3.95433493e-02, -5.83569854e-02, -6.45887777e-02,
          -9.83456448e-02, -5.59853464e-02, -3.61878797e-02,
          -2.60107629e-02, 4.03865241e-02, -3.18328093e-04,
          -3.95555645e-02, -5.83652891e-02, -6.44974411e-02,
          -9.83591750e-02, -5.60003817e-02, -3.62241603e-02,
          -2.61229668e-02, 3.95948626e-02, -1.98672921e-03,
          -3.95307131e-02, -5.85241355e-02, -6.45455718e-02,
          -9.87598523e-02, -5.61629198e-02, -3.63980308e-02,
          -2.64377650e-02, 3.87815721e-02, 8.80975975e-04,
          -3.88637260e-02, -5.77679276e-02, -6.32883683e-02,
          -9.76506993e-02, -5.58757670e-02, -3.58387269e-02,
          -2.60160416e-02, 4.02985513e-02, 7.34932197e-04,
          -3.89766432e-02, -5.78067787e-02, -6.34312853e-02,
          -9.82665867e-02, -5.60807697e-02, -3.59873101e-02,
          -2.61678509e-02, 4.01220508e-02, -8.99432693e-04,
          -3.89514379e-02, -5.79627492e-02, -6.34776279e-02,
          -9.86600593e-02, -5.62400669e-02, -3.61579396e-02,
          -2.64766291e-02, 3.93252522e-02, -2.91663199e-03,
          -3.91088016e-02, -5.80342114e-02, -6.34734258e-02,
          -9.87635627e-02, -5.64627126e-02, -3.63093838e-02,
          -2.69276276e-02, 3.85609977e-02, 1.19992583e-04,
          -3.84158231e-02, -5.70536591e-02, -6.19693659e-02,
          -9.76601839e-02, -5.56522980e-02, -3.56904455e-02,
          -2.62571126e-02, 4.00343537e-02, -1.77439273e-04,
          -3.83308306e-02, -5.72304949e-02, -6.24865666e-02,
          -9.80737656e-02, -5.60204163e-02, -3.58059444e-02,
          -2.64073405e-02, 3.98709066e-02, -2.15596193e-03,
          -3.84851471e-02, -5.73008321e-02, -6.24813214e-02,
          -9.81756970e-02, -5.62393516e-02, -3.59546505e-02,
          -2.68506259e-02, 3.91217917e-02, -3.45401186e-03,
          -3.87236290e-02, -5.73926717e-02, -6.24577105e-02,
          -9.82581452e-02, -5.64766079e-02, -3.61781605e-02,
          -2.70838961e-02, 3.84567641e-02, -2.90711527e-04,
          -3.77728716e-02, -5.64766452e-02, -6.11796491e-02,
          -9.69089717e-02, -5.57362773e-02, -3.54512185e-02,
          -2.63665877e-02, 4.01584804e-02, -1.35575910e-03,
          -3.78795452e-02, -5.66554964e-02, -6.17356002e-02,
          -9.79169682e-02, -5.60550652e-02, -3.56583856e-02,
          -2.65139937e-02, 3.96103188e-02, -2.62869126e-03,
          -3.81136648e-02, -5.67457192e-02, -6.17109798e-02,
          -9.79981422e-02, -5.62888123e-02, -3.58785987e-02,
          -2.67434884e-02, 3.89583111e-02, -4.05103853e-03,
          -3.82603407e-02, -5.67751676e-02, -6.22738153e-02,
          -9.84183028e-02, -5.64142354e-02, -3.59520949e-02,
          -2.70297192e-02, 3.84251773e-02, -1.34339975e-03,
          -3.74867432e-02, -5.58528900e-02, -6.09566458e-02,
          -9.75866169e-02, -5.55707887e-02, -3.52725089e-02,
          -2.62589660e-02, 3.99371758e-02, -1.95998233e-03,
          -3.76377441e-02, -5.60285188e-02, -6.10349365e-02,
          -9.82063562e-02, -5.58053814e-02, -3.54543366e-02,
          -2.63338890e-02, 3.96802612e-02, -3.35094705e-03,
          -3.77809666e-02, -5.60572185e-02, -6.15861118e-02,
          -9.86193493e-02, -5.59286624e-02, -3.55260782e-02,
          -2.66159140e-02, 3.91573459e-02, -4.58538765e-03,
          -3.79128940e-02, -5.61517477e-02, -6.14863634e-02,
          -9.88734290e-02, -5.61245494e-02, -3.57155390e-02,
          -2.68727262e-02, 3.85403670e-02, -2.34763441e-03,
          -3.73826735e-02, -5.54711334e-02, -6.02404214e-02,
          -9.80342701e-02, -5.54854684e-02, -3.52195278e-02,
          -2.62047444e-02, 3.97882126e-02, -2.72773625e-03,
          -3.74932922e-02, -5.55376783e-02, -6.02941960e-02,
          -9.84799340e-02, -5.61623089e-02, -3.53679545e-02,
          -2.62358151e-02, 3.96142229e-02, -3.94223398e-03,
          -3.76231559e-02, -5.56309186e-02, -6.01933673e-02,
          -9.87303928e-02, -5.63554764e-02, -3.55550200e-02,
          -2.64891405e-02, 3.90072726e-02, -5.02723223e-03,
          -3.78034189e-02, -5.58485352e-02, -6.03104122e-02,
          -9.89675820e-02, -5.64796291e-02, -3.56740914e-02,
          -2.66975947e-02, 3.85544002e-02, -1.57452244e-02,
          -3.72750498e-02, -5.51276281e-02, -5.92586622e-02,
          -9.81221199e-02, -5.63705042e-02, -3.52226160e-02,
          -2.60645412e-02, 2.68117730e-02, -1.35980025e-02,
          -3.74612212e-02, -5.51560372e-02, -5.95251173e-02,
          -9.84258056e-02, -5.63932620e-02, -3.52725685e-02,
          -2.61312649e-02, 2.92607006e-02, -1.46676516e-02,
          -3.76388319e-02, -5.53706400e-02, -5.96403070e-02,
          -9.86604467e-02, -5.65158352e-02, -3.53900902e-02,
          -2.63370834e-02, 2.88144238e-02, -1.37455128e-02,
          -3.77316773e-02, -5.13437018e-02, -1.85475461e-02,
          -9.87721980e-02, -5.66232800e-02, -3.54600921e-02,
          -2.63978597e-02, 3.02142613e-02 ]
   decision_functions:
      -
         sv_count: 1
         rho: -1.2136335516603838e+00
         alpha: [ 1. ]
         index: [ 0 ]
